0.2574527113870784
0.1732042930897725
-0.06401685701144051
0.13783866687091526
0.2293560760045977
-0.28746452140519196
-0.03501663523949974
0.10041618172103967
-0.04469739330115553
-0.240274564078593
-0.038853292536660186
0.022725760111539834
-0.6551016626205252
0.04232149834983774
0.02546305385936389
0.06994959015587549
0.0967012311335006
-0.09533144142874816
0.30756904063480955
0.2361685296482582
-0.23203675455207137
0.21692870103231204
0.27458429892649316
-0.10464855415131291
0.05820359208128864
-0.3221422491859546
0.10493964826725857
0.040890949460242625
-0.035665591543695516
0.15273390617411395
0.055898948308059734
-0.14560784819252015
-0.19748680185417833
0.10442388507954703
-0.11629651570106396
-0.05558390871803301
0.04038978091399292
0.13789346951837683
-0.5421033333380869
-0.5553698270397944
0.19993241519656865
-0.3978587517488769
-0.3910480546924938
0.2614359180735269
-0.20889983055287098
-0.36214679307747666
0.33677607015887
0.14385468365666298
-0.28123626518783706
0.24740512489212826
0.07135748775530658
0.07104967224096492
0.27997110822488985
0.2601016952284932
0.31363500526554483
0.23006066444423168
-0.013344209773943246
0.41596396834465954
0.21209082640026972
0.39016819194031327
0.42980316574159694
0.1931232731200238
0.3240928236726333
0.3476699088928256
0.16339838297754455
0.4075658663902178
0.3004761380064679
-0.5295133866554266
-0.2149356578622394
-0.2638771250580779
-0.04625569726676267
-0.15875198589887637
-0.47306153226842707
0.016574566688015643
-0.5389515063586241
-0.8203381443450424
0.020090446294013617
-0.6846990084109844
-0.21376558185242334
-0.26181391309804364
-0.36149097285675547
-0.20995262500362466
-0.35818124981562066
-0.24572480280248232
-0.4714702623711959
-0.4541408982686208
-0.7693863061419082
-0.4962752937814692
-0.28246012977479534
-0.6454105605548086
-0.5783044737369432
-0.36267295698267277
-0.8750304712059536
-0.6898317534101965
-0.29810038965372027
-1.1305143881308946
-1.0113442209910044
-0.03251729784865482
-0.7631733725736614
-0.9033669365163531
-0.0060077606237239935
-0.37157405613526073
-0.9156179581694789
0.18768369316472203
-0.6124149074056675
-0.9168998775111834
0.05774415692018605
-0.6319077268452992
-0.590981662180286
0.02159451608224125
-0.13942546155860788
-0.5738040741810305
-0.016007064358539328
-0.07770199880127229
-0.5483271649199476
0.26176318789900377
-0.19364536363903803
-0.3763938097951531
0.29908883259373975
-0.0787673071683808
-0.23519782379408433
0.3476992195187883
-0.04883846898832629
-0.2379218097862254
0.274677042444552
-0.2550543297140219
-0.153696107171382
0.4140954415967952
-0.08313525958084292
0.06491311755121996
-0.682847297011297
-0.49528183109234925
-0.5716809128921188
-0.6575897788787423
-0.49237804662439666
-0.4616295854321443
-0.5429964784663727
-1.2621657491513942
-0.8566877885761313
-0.46854736146954185
-1.1522153290954198
-0.713118534535882
-0.14768783438257527
-0.9854932805551598
-0.4969468232087949
-0.5218225129108363
-0.6822346262142142
-0.46424537837694846
-0.3688195055514196
-0.8673569232874561
-0.6669929060056963
-0.17371745125852958
-0.7487621501468701
-0.47392320786695513
-0.0670135267982535
-0.8086304714174731
-0.4266233686990236
-0.40746796416775677
-0.5898812144778011
-0.3296524615122821
-0.2346062420647929
-0.44183743540523035
-0.6116267504533638
-0.12733117156597695
-0.1613121081477514
-0.5314919905852713
-0.24064063030214117
-0.31739093139991154
-0.4587712116104351
-0.33796478594285484
-0.30014465477167074
-0.24205226416312497
0.03412398819508802
-0.23552535473933017
-0.34136010485110657
-0.06934675224360687
-0.04454015317172038
-0.3762552706351509
-0.059734132989697
-0.1939522578396635
-0.5140690832236491
0.29191624676669037
-0.015507281264573994
-0.5128533301806079
0.286847720385887
0.1196572710182172
-0.45587671545380654
0.21801538047689412
0.20331865319920747
-0.4287224258407368
-0.03705557143037748
0.04161627531268843
-0.2678937521364412
0.2035293508727282
0.13169608231590552
-0.20885633587839852
0.29423764327182605
-0.03849351217067265
-0.09951069515703463
0.3568558235673281
0.12415632964800831
-0.0104434153479976
0.33131642330382355
0.05850321564907719
-0.0868916789665333
0.2986051857571586
0.2287545149827051
0.046411197459175824
0.13605917304451728
0.04479417962735109
-0.1003561746461763
0.2228207143155041
-0.04368752453276267
-0.0651046699867423
0.25906330460162447
0.004892249018399315
-0.2394389644058142
-0.1668827699621173
0.050260922056814636
-0.08743479558168442
0.01103324270605631
-0.04550049583717655
-0.1028660424460665
0.008987260640290352
-0.027803359914484984
-0.053040552955211075
0.0071133583829388405
-0.04817238526087858
-0.12298863597172016
0.17998295538898149
-0.378283023293561
-0.06929764551284234
0.002373388882646748
-0.2844844660325718
-0.1200286967219446
-0.045195099316349595
-0.27267091879233496
-0.3442578595763869
-0.0980566786243654
-0.04985155180858795
-0.20484215095877456
-0.2898548844126862
-0.059700055251935516
0.08670165707930683
-0.4145136680522195
-0.32037999625973534
-0.016527941902319796
-0.2609716222100694
-0.4419790960875994
0.056937536877832005
-0.38389386118493235
-0.005538846438943021
0.05569858987045017
-0.3076273615473058
-0.04841025493580518
-0.13332545918234268
-0.5106403394537341
0.08004086547424986
-0.14743375119539315
-0.6853095169723202
-0.12044105300885104
-0.22935898935618976
-0.19934983272882514
-0.260393057755161
-0.10588544696095897
-0.2121703380362536
-0.21276397405153216
-0.19944777211881376
-0.21958374719315685
-0.35904674587032304
-0.37993160601436865
-0.15147001146985864
-0.25911148414986584
-0.363166876977638
-0.3060697193930358
-0.1536336732163008
-0.2558199534210872
-0.27597613072423616
-0.24283424357752917
-0.23599840947026346
-0.29434631476199424
-0.33242984256633246
-0.2826164632373369
-0.19291784636544784
-0.3346761512840607
-0.3681355093315709
-0.22620122223373507
-0.6794467393760175
-0.708566319921719
-0.19091687578046546
-0.6397754838727712
-0.7189918110279756
-0.16271124402208662
-0.5327965404832806
-0.788599397099212
-0.3045000928217772
-0.7427778721111
-0.7395878815457279
-0.3785070667436861
-0.626222215108729
-0.8899802913414662
-0.33105341890973766
-0.1769958137466979
-0.7504462644749196
-0.26990096002104746
-0.23665856966911392
-0.6836590170083522
-0.18317674429681802
-0.2661325459867625
-0.5712477628569569
-0.14127467070456667
-0.3222251068535361
-0.42982898731149355
-0.13957703567338792
-0.2580380466627299
-0.4989088653630689
-0.36600313551791697
-0.24619171521705385
-0.315673819717576
-0.23557758889001562
-0.2639297401885571
-0.2516886546089576
-0.34955884374185625
-0.23291328034681325
-0.3402241168513893
-0.40395510025254516
-0.3365345603334219
-0.19476360046691818
-0.24989879498690176
-0.6611018612524333
-0.2636853362480033
-0.18051007457241705
-0.642347771298419
-0.45201363845370107
0.10287660494606443
-0.5670971297190467
-0.29180068122112907
-0.2070885610998556
-0.4759418957616376
-0.36615865352214516
-0.17704206554463145
-0.5271739980559464
-0.43896581121308015
-0.12504159444354684
-0.4575201627285561
-0.42571166944085864
-0.1538253691621275
-0.6334086401637841
-0.5349587200362467
-0.1380451771977947
-0.7154471488103333
-0.40995619205112316
-0.18230657978087014
-0.7788303901926543
-0.39730522180447264
-0.046414107947299985
-0.4532432272179157
-0.37139668860590414
-0.10138932962597588
-0.37434420398924256
-0.46350390914166734
-0.04821075942076694
-0.13757925214911287
-0.43779490467595317
0.07333248563034447
-0.32136427070021695
-0.3680477316831546
0.09389199003905685
0.04062171903267357
-0.3341138287274542
0.06982173852575999
0.02362687083136743
-0.3294257114227113
0.2004744090378018
0.0639052940100394
-0.440660665875174
0.20208037163865658
-0.06606704656495165
-0.39350158611194785
0.20152091502849165
0.04485242741283617
-0.3067063701042528
0.07616535967813759
0.18377009617092221
-0.1296987731380312
0.2480884805184047
-0.1080276867626042
0.2912361846045559
0.350858060160319
0.11165399717402424
0.1617651888168429
0.3550264909858898
0.009125629452039562
0.32356758381252704
0.30107375197248015
-0.017666749481856987
0.3066844281052846
0.35955821916704506
0.25562902621213246
0.202519453884714
0.1952717006825967
-0.024107887322424814
0.12614126848366572
0.11921730012966156
0.1138620082399405
-0.06456357995653583
0.15994592081941833
-0.1920442351591866
-0.10823720413888338
0.08692332035385889
-0.34573173020025605
-0.3630434997093773
0.05007974065073013
0.04656499832560872
-0.4939377022025388
0.08759638555563107
-0.24336643071673966
-0.019859127783265866
0.20480144668625494
-0.4717891467423728
0.10218080367573479
0.12552185442113015
-0.5033853633854998
0.01589684110924028
0.0728152891281654
-0.5624050417293943
0.044970845019612495
-0.006144091498498427
-0.34162220297570256
0.13687393627443803
-0.06996744909096875
-0.5203037455194914
0.02613198981121473
0.09139440778043983
-0.41575139808751266
-0.06022505422950097
0.061139830326562096
-0.3029850528861416
-0.23469460294466057
0.12576740238290063
-0.2073944924394588
-0.2642398034794705
-0.07194480937088077
-0.5598705096962384
-0.3760252848508725
-0.11375986154215412
-0.5469501895478679
-0.36096220555707936
0.04221544104156203
-0.5111250796880287
-0.3755296490809389
-0.03991500641395718
-0.30617747343870155
-0.3331442398124048
-0.0026476239779763544
-0.21262597999146404
-0.15892952781422068
0.025120387325451632
-0.23305588030154745
-0.3121069464016001
0.13085364293548807
-0.4659235477689194
-0.3251501299513203
-0.1942837436443582
-0.379680485262349
-0.33818148809080933
-0.06904630630093928
-0.29216236026763254
-0.36147962525336774
-0.11323903964987653
-0.35008115744840995
-0.26522897410904656
-0.04952168736093748
-0.26970003492810896
-0.28727629613312944
-0.15634532521044436
-0.5769938870710731
-0.35479946564212167
0.018893264502270468
-0.24084383962862038
-0.43953402900537997
-0.17834603016781933
-0.18289126741699846
-0.20399095954887506
-0.11912477617135014
-0.1919847514572774
-0.2844834676787226
-0.19076522118101774
-0.09305194383572526
-0.32931265577295404
-0.045219050205218575
0.04070214435865737
-0.34291895791790955
0.3050142302305516
0.05552171126895727
-0.2578281507608951
-0.2610447273911945
-0.43177868320341206
-0.34612822549384686
-0.1451760920512997
-0.42062153099295574
-0.40022162261600597
-0.4094437382995772
-0.49752160805568835
-0.2249608593453648
-0.4109654088209354
-0.3359891284994873
-0.257668731975674
-0.20161795375045513
-0.18981628063419145
-0.09407012553208179
-0.02574543310151207
-0.19483057214366703
-0.23112153346819725
-0.039412784603579165
-0.1044497617927343
-0.25913809350917566
0.002709893073541997
-0.1491036070287731
-0.19081628556386243
0.060715582324394536
-0.06284065668595568
-0.19648043827058143
0.06471328515079686
-0.09941977318078207
-0.24639929392097631
-0.12250543297419203
-0.22222361487545567
-0.24015935590089688
-0.10410776353851711
-0.10948140455857044
-0.2905660115217668
0.07140892578599163
-0.3031336874762394
-0.31000413806841476
0.10191673300138097
-0.2706667473159537
-0.17778579345232576
0.20869220374536146
-0.07188812315720297
-0.13544395483741267
0.21600514086083802
-0.2317092257343367
-0.14154038210470035
0.14420051843633216
-0.13685036524355199
-0.25562740465807293
0.12263608463649212
0.0364942069507493
-0.16683676137451134
0.06229435280035012
0.16333768472173577
-0.09646075263124301
-0.009703781460205828
0.08843867130559546
-0.16468700922195195
-0.12735139096028078
0.026273659230488702
-0.04944929640416751
-0.013577311637417199
0.059668594532900555
0.013044936308861652
0.08011951817658422
0.15688402908012994
-0.10319193769737244
-0.1140652026876812
0.19769347399301793
-0.0023184889628876243
-0.0015121071288045022
-0.09532346488767258
0.14038691881676052
-0.18556940221768953
0.10602550004809269
-0.17970720832471182
-0.19276547681841977
0.06745277401797353
-0.09187274451712339
0.030325057782955966
0.19571293932734674
-0.3466950027493153
0.33328845326943934
0.2623685507455367
0.23145679604072955
-0.06051058091666842
0.12231950892942714
-0.23565319498605253
-0.16328016055858313
-0.09736217500720101
-0.1061821991983393
0.20347538852706354
0.19341141886143376
0.11909610496102374
0.09155112699325113
0.05985478760298092
-0.11947188652056215
-0.15579613031689327
0.09449460485338822
0.03451813570188694
-0.16744859138415308
0.005166192714784086
-0.2679845941940243
0.06488156726722973
0.24897100923451965
-0.064494059917537
-0.11349585237074425
0.03195857164868093
-0.25110143848678196
-0.5354794731087064
-0.21510362919586656
0.07417526627862543
0.011642678915360673
0.011377646464761432
-0.06818464618746287
0.2536346786261973
0.155843486290975
0.26686598496522634
-0.17198031956530968
-0.24133720404530887
-0.14693646426621143
-0.18519508320903505
-0.0655463876086804
0.06844144833599745
0.0944145111003333
0.08818878448680058
0.158398318935689
-0.22052107799748133
-0.28400470640018627
0.005614671860349758
-0.07882812680102652
-0.08651694512311255
0.017630513216447374
-0.2896709525263061
-0.22836199734848037
-0.4404272466451267
0.07176230253241367
0.0163800033872394
-0.2808900051079224
0.01462545770905243
-0.20153659156620843
-0.49011719695989636
0.14130148191684955
0.02642102744464266
-0.1801082571369847
0.07860601336735853
0.18379113413908565
-0.5235178205703909
-0.10289006105099183
0.22634816935641452
-0.22280910993728426
-0.1627522242427817
-0.22988100972517514
-0.3845999748323796
0.05993338489896754
-0.20678811711145778
-0.18830656602645746
-0.674038722431277
-0.3275250009159668
-0.44790988920186114
0.3803433764201557
-0.05316095185115011
0.14745573413562493
-0.6496730304868134
-0.18079448060771397
-0.3166017721601754
0.373147301819425
-0.09173367788126911
0.23529019794321368
0.10639344696101358
0.14215382085823375
0.13819497899840852
0.1822625225830391
0.10961528705449602
-0.08480392919825824
-0.5068982728114979
-0.35752032430208336
-0.47326850653690955
0.2876096262708109
-0.1684188975198394
0.06562834011964848
-0.6547136539810771
0.023845368803323597
-0.14288827270718632
0.09276465721170152
-0.1276094526069518
0.177864367154882
-0.029261766164417294
-0.14348347148001583
0.1411054955754906
0.18838791052313764
-0.03039401805972251
0.061627493148648085
0.026939313611750067
-0.5417412488242395
-0.4867856120544589
0.23221064420308046
-0.314439404098697
-0.039355405556063025
0.02761136487874577
-0.7495287806833622
-0.5856558269652872
0.2169394808581203
-0.32783754954431377
-0.04681553504885662
-0.15309413546206208
-0.10164107185628471
0.36717608530746726
-0.00769380108086141
0.03839970948924789
-0.07055827886516348
0.25643964184628887
0.168853722949165
0.22983114873059482
0.06836059947207423
-0.09957018607311696
0.12014656957503865
0.29309768347947057
0.5092563915702617
0.5876347252775853
0.027631978782317775
0.11452856099730954
0.15845246670684138
-0.22874490472426934
0.13277748999746736
0.4393434408933836
0.10065457924787642
0.16661351005745478
0.23707955799503466
0.3701697158404839
-0.09331363232634846
0.4688575280016471
0.13749815895100478
-0.2590553453778432
0.33213564678644236
0.2920845147900534
-0.014718497357282716
0.06918938500085811
0.10402874193903132
-0.2669278022707223
-0.11647339367955373
-0.2001580642865175
-0.24980014917832485
-0.37359567775172725
0.02229258211613388
-0.08937144280979187
-0.2540274676470126
-0.18597148789100512
0.010013164184166248
-0.3333208115965068
-0.005482564082950225
-0.11080657093415267
-0.0672187256407967
-0.28713761642293195
-0.2502527901844154
-0.3693471698826244
0.19053816780896782
-0.17384186198105947
-0.030377457355288698
-0.0012803652122209703
-0.037064172191854663
-0.2559808914240049
0.2930945293215309
0.03558096238184707
0.07023940800447384
0.14316326560160952
0.1727256154096609
-0.4409815145354396
-0.1544194157225473
0.08042396418626138
-0.04561110465393531
0.34645681546813856
0.09611404934519252
-0.2327273958072301
-0.10209236387379975
-0.09745722431759596
0.028494048785628556
-0.3295556680732892
-0.11898723996469177
0.09938166249449268
-0.08846678333159172
0.0877638064426626
0.18018758662729328
-0.21925930833463522
-0.25355445025057105
0.05371563510910531
-0.10580168611504889
-0.03780751876591887
0.13965704336669493
-0.44854917934193783
-0.1935712736627886
0.26122144459285773
-0.24160775267310233
-0.29198573830473545
-0.03225232334049746
-0.14483101161150563
-0.1329164168239877
0.0807152583714498
-0.2975826813241572
-0.09230165122339928
0.3953704098815038
-0.2686833239069012
-0.07540961594702342
-0.03269382131547383
-0.1143217773608324
-0.040719666796708964
0.12080305424942858
0.29437489453375143
0.072645134573702
0.32622029942847736
0.47767578423189927
0.07641092820335588
0.33896971252733427
0.17260308593361762
-0.12081973511831864
0.26610208595570906
0.2160659465699033
0.023092892613717605
0.196293408805921
0.3200258676291237
0.003000917242690325
0.12412172586167726
-0.482387499700725
-0.1942168233680481
-0.24189761573783647
-0.08835599512170955
-0.17074156327681314
0.09724724816622675
0.12169490042690692
-0.13406310824855663
0.18691586107411604
0.19988301938206632
-0.05916409483241716
0.23935943867946166
0.01246750527867787
0.06534257352599865
0.30070871063310506
-0.42495952954255534
-0.2286844685148601
-0.17103236711444933
0.2999342821683013
0.16591551858067136
0.33480919067953485
0.27283980236139477
0.027257971285730504
0.2572918698173838
-0.09240817042623764
0.061543056831005236
0.10180231526391396
0.22245492321679494
0.22813152945755288
0.22673302268168286
0.30982500582793104
0.1167962592088941
0.28568141011533016
0.21632907836848603
-0.003750073405871031
0.2220902780912248
-0.6478375436053122
-0.1806352704193007
-0.1525814424609873
0.15046440519549467
0.14258285321850953
0.2756412936716437
-0.03221584388179097
0.08143069978955546
0.09065846304012685
0.20812523750475187
0.18127708076158902
0.2716022189261065
0.38160637810276343
0.04616357322905783
0.20557173173290555
-0.584268447946248
-0.38072428407290027
-0.3550151360321397
0.3369435794606523
-0.06421176710129342
0.29209006690862666
-0.47709787895517874
-0.4019600685526695
-0.32415431264245737
-0.48984777908290295
-0.24315773201304391
-0.12843187292059152
0.40345077495679077
0.10497614711389049
0.30264232468721286
-0.5121752160284597
-0.12046410932726698
-0.08444143958900234
-0.6401903753851322
-0.5592503504161692
-0.27477208382497426
0.03748446890917442
-0.021789208278932992
0.02051184522910558
0.24645192126203475
0.005184456462565927
0.3240954489683676
-0.35326207157957856
-0.14350882547783686
0.12723040786543818
0.2858296327589223
0.08741531796283743
0.3504089802161108
-0.05389055540681837
-0.3782899489877199
-0.495333186447195
0.15603481624610432
0.12639863545802701
0.042764851949842954
0.3562362313442923
-0.31475448035684533
-0.4301449906778486
0.36343426439673965
-0.012728051678031153
0.052164086295678376
-0.110401127265359
0.024642262112613254
-0.48116850451178494
-0.232368857884932
-0.40647652553671537
-0.433733241162228
-0.0352428147137695
0.05797934669958538
0.12068765960524508
-0.07148540499988959
0.009399573148423847
0.29502195402431775
-0.1666686802244704
-0.4249723040907447
-0.2814370508235954
0.051518726557217516
-0.030502357460528182
0.15593916426467933
0.08893303318738971
0.023839238214068945
0.16116396041798484
0.08320035607129156
-0.5288484172448634
-0.05405274904663661
-0.14373852370208867
-0.04421139348225404
0.14247466858503624
-0.11102728615542329
-0.21446269281588218
0.009171792159327608
0.018801118408621198
0.15855940154109685
0.17571098412205646
-0.16927792396559332
-0.10986450748118522
0.06602640496650039
0.07488418742863107
-0.044010829751162966
0.15339751773363927
0.07171767596788253
0.2697977719233352
0.3417010633447839
-0.0159514512709929
-0.11740426014908213
0.2644393254969014
-0.10665974367009151
0.05278533433749684
0.15509368477553812
0.1585256361703058
-0.07198263002145425
-0.2122926825796739
0.02155356637447181
0.011928032987472501
0.12471170399636296
0.25639627651044655
0.11883959230639066
-0.16496475237599215
0.15632286111248997
0.08510872818626766
0.29921442735676695
0.3148630936430325
0.1691974685124424
0.04533326150226812
0.22460480302564584
0.06690053512290384
-0.03635478420115852
0.27411290772668473
-0.10763344561264496
0.22996992798500285
0.13874933746135104
0.016688222974709597
0.25146726409224623
0.029623487927614073
-0.15455987686582665
0.026495884149368168
0.2658669193409775
-0.05471349589379304
0.1283711118708682
-0.03853201785617781
-0.27683091412508715
0.18463666648273458
0.0924085061925487
-0.04635911980081772
-0.16905940520134116
0.2954747227792965
-0.017809396657605333
0.0930232037612327
-0.07356673299575311
-0.056958825940653074
-0.29190862757097524
-0.08585546556429513
-0.05021231214819416
0.28782204829340413
0.3601021032441343
0.15869356501520232
0.07553908631023043
-0.2062422718557558
-0.21577593566173986
-0.34113138122995224
-0.10007341539795686
-0.03373086412012316
0.46417917973275913
0.28658511047972013
0.026823332638388157
0.16216546349386332
-0.136972069795834
0.08391066300892679
0.33700438657603665
-0.090835638699624
-0.07339343039791883
0.11104180776326257
-0.1783774196379737
-0.21701243758583807
-0.18660737856924536
-0.18807904237421452
-0.2684239090222819
-0.10968457915555635
-0.2326715568894786
-0.16574171305149463
-0.13672188121520432
-0.16119312703705468
-0.3160012458204581
-0.13718098662767947
0.13055946167799162
-0.16243809473475482
-0.08310546824043955
0.10348070340071919
-0.037147859467400554
0.06328854786280175
-0.032321125454349856
-0.06216368269749463
-0.13124544952597444
0.12526665874292955
-0.19495684739994326
-0.0927492359274116
-0.13668583233769827
-0.36576671040617553
-0.4671891975581544
-0.05330774286564819
-0.1138105186303073
-0.28679234856210195
0.02379310064435395
-0.04196562879756323
-0.37768451351575166
0.009761403794954458
-0.45837588511987537
-0.04389209410795698
-0.13679504761085098
-0.5358531909820072
-0.4961209543109491
0.11798705960678352
-0.2234879643569196
-0.22758995160652903
-0.10056340038290122
-0.12291896133886554
-0.3820128129846368
-0.07799854563756832
-0.3122457901749919
-0.31138414138216636
-0.12488511198762561
-0.3720499975931446
-0.25599193693371564
-0.3166092541778006
-0.3187613716524992
-0.4752468753450872
0.09343300943644675
-0.28721841144174076
-0.10383669439561127
-0.1654118401082746
-0.34994035803807605
-0.19315426067115543
-0.20896629745760154
-0.2679182107296128
-0.29714050704912937
-0.2903779676789417
-0.2973685967746474
-0.03683195518083544
-0.3683870844538649
-0.209482956531433
-0.4350907493838468
-0.062160585725047436
-0.08473845926668219
-0.06954549579507566
-0.3614536973719747
-0.20053979470652647
-0.22376967084277274
-0.2553393562479386
-0.291532660030809
-0.16728173147696454
-0.17448812348457715
-0.26317568277311687
-0.42770364148072976
-0.1796258922012965
-0.24587014953927583
-0.11435333255237404
-0.02535488309444272
-0.05988352041695592
-0.22415544437768437
-0.11729082957472611
-0.22463602599465676
-0.34668548470506916
-0.23437563869396294
-0.21582920122687538
-0.2324798083241503
0.2917525887150464
0.15356315108570387
0.05407551838723989
-0.10147355809857551
0.15299121860238032
-0.2849352775883405
-0.38766837534037446
-0.10299972974351328
-0.26447604151063425
-0.1723855467571554
-0.18245459415552198
-0.25636208102428154
-0.13464651578258002
0.08632588752673082
-0.2120998428257589
-0.071075729693033
0.09682880206812178
-0.18693771566193745
-0.2735021567403182
-0.15840527660775164
-0.0016391303733083971
0.02773372974897135
-0.03575522515031821
-0.31488992795663057
-0.2036639179058088
-0.12730439140281968
-0.2998687435712632
-0.22633810179337638
0.07722102071844511
-0.3312520484498737
0.062335062626570445
0.021234123544619753
-0.2323321521526953
0.06983823883450917
0.031100885204932198
-0.2982296131979547
-0.3387181336171765
0.0789964055707712
-0.2124705402300411
-0.23372568180448977
-0.00016707151384991875
-0.28886103772005717
0.14942197205930324
0.2829827094942638
-0.2105636507489705
0.08510712767425828
-0.1684189179540209
-0.13314133315717697
-0.20889546730559705
0.09348069778357579
-0.2557906624452911
-0.180342770380847
-0.11221359996136543
-0.24641866535339277
-0.16519389417355956
-0.08504700028042131
-0.26320381151670197
-0.20164248002734658
-0.08775155743733998
-0.3845821066021102
0.2410888847416976
0.20675104640735414
0.0808059241328005
0.1134576222195865
0.21416858682488377
0.19441495193556366
0.08124670418229105
0.15749097682097996
0.22307711102767663
0.13883150966676344
0.05084316092288684
0.19406569395430417
0.19201186765033357
-0.05369272624168361
0.02334643356146368
-0.07344715720574815
0.07854334308025354
0.1272150004503953
0.218446394813274
-0.07945486441200819
0.008113960486352791
0.099493594815764
-0.07916347708462107
-0.07639049749001599
-0.03644858585378726
-0.0027045571569184815
-0.12137829508540807
-0.10363654270924536
0.08527730353276283
0.1776511898506239
-0.09973626385133169
0.12949450556962813
0.20951325632524453
-0.0818560341405839
0.21587377087381737
0.23057475947060674
-0.006217010651249202
0.31517030352126724
0.3668091218782163
0.12087750390022098
0.11484079773675016
0.4035092395469231
-0.03908665295229709
-0.07123306560787773
0.293494058088406
-0.032178460681367
0.22434317297508616
0.3371127170672868
0.08762967405239686
0.23160874059173225
0.20232377912354638
0.2515213104964942
0.20121339085650303
0.396470555863062
0.3098664284109378
-0.2314427630140896
0.3880424185696019
0.2066784956733806
-0.12554545092846556
0.3416949613729695
0.15051353586607064
0.22124800536177808
0.33089222538383084
0.1355263579648497
-0.14031029836178086
0.25738733840655803
0.18661844584050005
0.03271870048710145
0.22856070918280127
0.2316555184252807
-0.14183126769850143
0.23202848216405306
0.21789615601333406
-0.0035686192062858602
0.12781129901892252
0.23086519609563186
-0.0200887773770379
0.18915108919201232
0.16606144192510683
0.11231309661492506
0.11213476717655076
-0.028139915742020682
0.15744792947798847
0.11768777871663666
0.10897957867182706
0.3931451597069734
0.08870237921340093
0.2875665775817383
0.04461216680974483
0.1691440647247145
0.29916514050552845
0.1100181497018983
0.08535868863198522
-0.2030919547738414
0.29559844386369166
0.3674256982157019
-0.36006998179554883
0.13385914608643296
0.06953975662113762
-0.3330023817579341
0.009428223132669895
0.08022603876297911
0.17316396056598554
0.19572065449115372
0.04327633148594577
0.3163052690950589
0.23777350174727313
0.1871879672074549
-0.32514071152394236
0.0485652697755268
-0.028494586295361238
-0.23217732266223762
-0.01886701426596696
-0.049842894624299285
-0.14701444168489683
0.044893639806380746
0.05368409143495935
0.423341873978344
0.390867733821112
0.09869603065044857
0.28203756074621744
0.43888532109925216
0.2071319737168072
0.24706853252163002
0.4188969935632692
0.16794588452562767
-0.26256076994491684
0.24126095422813892
0.21842213121045212
-0.07817182337927525
0.17425625119269136
0.13292111026502468
0.038081262403335356
0.3352538258002656
0.14708435242728515
-0.1824170475867159
0.2191657048473724
0.1289139708236846
-0.186072850552777
0.0996155684094733
0.09183003721011893
0.10164478299872026
0.31137799389682447
0.16233845875055206
0.04813100932155632
0.39235283499719126
0.16515379092649837
-0.2736717724537041
0.1646062589104411
0.21564552106099696
0.1913952954819329
0.5448828132413868
0.030190715657910087
0.21588619298000114
0.5368527126156022
0.13533324545965697
0.04883747883576118
0.44989315403180463
0.10189404046255408
0.021550406079017776
0.46601858208945335
0.143025018391906
0.23420385987433318
0.2927372665877181
0.07332375371637974
0.24966231988825632
0.43055109049745915
0.2278127400769916
0.023939096198116797
0.591219247594031
0.19404512340023394
0.2840618305854361
0.09221228904945214
0.033424487926867724
0.1416788333560489
0.3562781117654082
0.3287545954457815
0.027098486389115353
0.12102384110069031
0.361209039728574
-0.08334158927167432
0.4970848043229199
0.2269747664113549
-0.12322759563956523
0.23799090621284968
0.25358150924166384
0.10860537056985525
0.1563470666125954
0.4042387872386571
-0.08029487423656956
0.2509488975325626
0.28434486759725897
0.11625308578261054
0.16099757460757422
0.014163242162260486
0.1332416489776737
0.1799314619339222
0.32551491341740507
-0.05079645145721735
0.12504774167754792
0.33121243080059387
0.39408297420652666
0.3740033537568883
0.11426179309066868
2.9960197086103396e-05
0.1880344188872496
0.3741306389129073
-0.24585668927274384
0.1769625278518378
0.3480916349914272
0.5142148834084552
0.4577523353652193
0.25697486834110644
0.7484825855022864
0.342302464045585
0.1271906169458098
0.04165153120185478
-0.008520500208244188
0.29891538191551703
-0.20178881321661798
-0.008520500208244188
0.2966736145847246
0.6493076508529929
0.22834527861460308
0.10696192844447594
0.5332339423615348
0.061861508404720676
-0.026263425135191767
0.1895253136388573
-0.2831270100050751
-0.003343690581415256
0.31341907615243136
-0.1128357626682438
0.05145628600807807
0.18931821315891847
0.11588171582121107
-0.015676531842371964
0.26691052767497936
0.08751486212877058
-0.042877392972040684
0.3092612759683766
0.11092602263237983
-0.11313425219016787
0.2190895894743789
0.1575731903997198
0.05952510004674901
0.1418120999577793
0.1130329968919066
-0.0877700014055646
0.3809517409967096
0.1795367063225414
0.3568502671151029
0.3734612329295881
0.10374315912255024
0.24387344733432004
-0.008177511538328353
-0.0593386976842891
0.030734565249834016
0.5015448541287635
0.2663386759623131
0.4066452475968416
0.4311671920621332
0.1792875554636211
0.3882320809171863
0.4352511440248155
0.06867137004115366
0.0762634551706314
0.1997371550296498
0.11134720117332764
0.004971226816533149
0.25632907358047957
0.2036185196672469
-0.08334078610139534
0.8017299625227089
0.5271668592101447
0.48865224328598544
0.7684933561449377
0.5221720193712186
0.4357905355097713
0.5840889549567895
0.3666180513442857
0.30537151937676743
0.2930252170959152
0.32104195160540855
-0.015466686419731283
0.4639946729490515
0.5126799484586618
0.5943254307302104
-0.3109500538281817
-0.18287217861846405
0.039798376551929276
-0.17040574664990224
0.13164163954858324
0.05993805404626762
0.1788614451707775
0.08393909980958429
0.13140319591649882
0.3061436159081452
0.10553606593406417
0.6690603323703872
0.016047954595483027
0.09691936365926455
0.6594876975209102
0.6418831727385271
0.5591084564421653
0.6689165899577943
-0.0952883729282154
-0.06299996081874415
0.15407526196057292
-0.03919043763554736
-0.096591975490532
-0.014856067322200467
-0.011645237021087024
-0.11830056669272031
0.33048438293501275
0.5675664097969034
0.284934647021162
0.6441560557694893
0.4247230696572192
0.32538818674251346
0.6844295702666169
0.4587600716638348
0.24433045476452664
0.7057153143635784
0.0051731367735069755
-0.11329926755456948
0.05309921271421084
-0.032807465390336216
-0.16857403683340202
0.3474628618060689
0.5528186921177818
0.4978050114543207
0.6661731177059139
0.3490274054803148
0.36734926175681004
0.7415356839772732
0.003862096106745594
-0.086940461209443
-0.08152194440044078
-0.4727163709273317
-0.04332960730074269
-0.10907627711862829
0.47082526876716485
0.2841589286087838
0.6317203234716904
-0.023139404584757176
-0.2293352872162213
0.13946462244382649
-0.05952216757760284
-0.07652878628336779
-0.04888490184618144
-0.06600703522885883
-0.05141536053236952
0.27124236937833673
-0.5272519947817053
-0.07079651481235029
0.24012922191602973
-0.5421030517193487
0.07688287361178718
-0.2138297822307614
0.24168905722099063
-0.08981070918221366
0.23458619741778708
0.5542471900032513
0.5764269015846957
0.6501265587335943
0.46028812380848355
0.4337585738372779
0.7169313584431335
0.5271550410449906
0.2871519588967898
0.6520640121774233
0.09292441659726752
-0.07591284975506292
0.10400640711076707
0.5574234859576002
0.6433540496654055
0.5861722855892582
0.410617301037165
0.3720712431841069
0.5152484412993269
0.006794316241748404
0.20844488898131097
0.4475789370050788
-0.061456959269433245
0.23510535167064395
0.11582009304046069
0.2797483418510111
0.4719837284630276
0.7143754207251727
0.29109989536021136
0.6960445711626191
0.613212927893974
0.05555473536816472
0.012712001101591156
-0.11070484082516728
0.3565008994666679
0.5224636745199088
0.7307787598834522
0.11083644254002847
0.3759804466849953
0.11775703422117147
0.5068161559321489
0.7259566965613785
0.6548823095422146
0.4828322622636326
0.6120019556363355
0.5560089609078718
0.36471364706429027
0.49009348493140475
0.6422161589134538
0.49477402172218704
0.8453134342168767
0.7355237596562947
0.09834443057034098
0.6274013366732498
0.33186378918822673
0.4249345490808915
0.924102689901139
0.6247625351405325
0.5103040586014924
0.8291602224443044
0.713685702224713
0.11902030630672558
0.28653762032341384
0.2605043846559455
-0.11226113458458176
0.043437206385289584
-0.01608691872339759
0.4834275283932407
0.6630938610534992
0.5397371687703489
0.5476455553442747
0.6111932428497363
0.5840673036127512
0.5419899714876806
0.41682494211985527
0.47433964062150014
0.3745995633892719
0.3512851101659374
0.5537823706349465
0.45126142056398444
0.7132446954597873
0.7655871503673821
0.18682392525374372
0.5478965782180905
0.5966624095259025
0.24034108138654248
0.09984638097203341
0.1018752277214997
0.5121642825644587
0.31855349970397145
0.5191313216111673
0.43934470360046185
0.23862625314791047
0.38353651958883206
0.20896745235286046
0.02697366474149904
0.3058253710700546
0.2854659838239998
0.37696266807900336
0.41747781475963575
0.38183487087065104
0.535923298590212
0.3940728221712043
0.4704053086849219
0.36263102145724674
0.3752309314285647
0.4630217275677492
0.4751693566325809
0.537513394041295
0.30168398060141444
0.13851972338312607
0.27149405826939443
0.4532260686542806
0.2960374080365578
0.22591344501162106
0.35721960318860047
0.22954414317189026
0.173398168982745
0.369262103464281
0.1376871286235033
0.23474203116291312
0.06267083630620729
0.014749147003498081
0.2176438674384433
-0.05759285063736025
-0.1022981365332194
0.11058825239664119
0.3525568546296447
0.4609392194919749
0.49739283485351293
0.3164889558248135
0.14911298522557875
0.32939500990508563
0.26378201520952427
0.021918830863575878
0.3794006185968085
0.3198528626848477
0.18168188024115506
0.4475166912628452
0.16206077281864797
0.5348455446217929
0.5789976136619477
0.10425003772812963
0.26209066421819116
0.5277544260661475
0.329155090105841
0.17427093907724922
0.3705958362205801
0.12101944165252282
0.23774259990197227
0.3396507435465771
0.04662003225233586
0.24613512608560484
0.2002993184123457
0.2930216777028725
0.17885572403163685
0.2594031843900967
0.38439770631862286
0.37859054965177047
0.6264841732644837
0.268665412543502
0.40570460879094433
0.536958422371048
0.18872751587733694
0.6123691786269881
0.49147571609614227
0.22083147424853422
0.009431600766363929
0.208619139262436
0.1681911258759374
-0.04004135132086678
0.15165055943497183
0.15543913384242175
0.23650836232000377
0.11213635214969767
0.36885144293035993
0.24788849120387527
0.42980076840921994
0.5579529975539212
0.13167218859479998
0.32409633044348357
0.48958638994470294
0.02719929432172443
0.5781553952385821
-0.018019023246259924
-0.19414578896704943
-0.03386000671195298
0.03958835769338531
0.227717702019809
0.3853477902568555
0.25441589461412617
0.1504653876819793
0.28589812070409215
0.2499915279257669
0.08250090786422719
0.2639953127415131
0.5840372780713173
0.23720785649455414
0.5442084497979731
0.5313914211258274
0.2357032615090396
0.4711001291046728
0.5355755985519385
0.2787182712743204
0.5215180896363572
0.27086041378228315
0.21823169134883635
0.5106812974440527
0.1398894478029235
0.3005131455306243
0.4376796632834471
0.16279112838119703
0.22420383240543518
0.3732772097534458
0.9264548516464883
0.17838797655917082
0.5142300747909962
0.7118560119662622
0.10983331673137786
0.5536965456392968
0.04456660462962329
-0.19075103346806893
-0.1633892526737564
0.4155714304793523
0.41926603191377343
0.6146710555761372
0.38310496054662546
0.3315979342753028
0.5486419156868628
0.5999625311907022
0.17308173353038253
0.21143318608661013
0.5425563977869063
0.025309786917850463
0.3378799089457805
0.6982214506348419
0.26243451166560333
0.36966289523391055
0.46035080952278673
0.4381935351657772
0.5440000411758704
0.38246760430519033
0.32274518967501836
0.5070696696504264
0.4044483183711165
0.5254609536861911
0.5928470920406838
0.5534842782505235
0.26817832165290223
0.20372942486172277
0.4309499832832292
0.25408903171546415
0.1332281341089321
0.4516706570666248
0.5652159093390927
0.3566422266421726
-0.13961172166791566
0.2651118016353946
0.33256685508926065
0.11182067321101169
-0.15528451598879825
-0.15666187399779455
0.5553713715694782
0.26817832165290223
0.21098445240544406
0.48413228867642866
0.2636906699181219
0.24606730909944916
0.5135153856868017
0.5642440559732126
0.5546360532149757
0.6609288328152846
0.23472548822107545
0.26902798276703277
0.6090643606333677
0.2978457325410625
0.1680069095398632
-0.09053253600415859
-0.052763676788663505
-0.1590297049162573
0.6384786306062763
0.30084191220711154
0.23068768466813896
0.5778758076868039
0.2978457325410625
0.17077834483933668
0.5142666684655295
0.33189710163330377
0.216564723033664
0.47492912993417924
0.27342322013162423
0.2931109261689573
-0.16008879348171598
0.297435402757168
0.16918976070464603
0.4956284301264834
0.28557476159448325
0.2553270090055777
0.4448495971866431
0.31121082508260933
0.2790928232294457
0.5391100792735167
0.22694574979985124
0.20383239087058852
0.5188979330077804
0.3867910498211567
0.19607320004280682
-0.12900946765890786
-0.27073481841609753
-0.2915958011220674
0.5413471480531078
0.1942609157357231
0.2070795412333971
0.5018406015117883
0.32451302053595227
0.22653671295168765
0.5767063146195329
0.1979531208614615
0.25639591081015234
0.5901649831075638
0.15141615274057602
0.261224409442127
-0.2937731322637253
0.26302644202058784
0.22318419680677332
0.5076800712465012
0.10809281867363303
0.23339419816918508
0.5797928872525245
0.09915191279382696
0.21470257097021941
0.6882283690054688
0.36063230870187307
0.28284345308789544
0.621904813148691
0.3099211619005629
0.27279476070084907
-0.5108834211671361
0.24087805535460277
0.10044098078514167
0.5115383758876999
0.22661878571722385
0.18819096577451028
0.5006878252319912
0.17350864803678076
0.25612717444164207
0.5466944479256871
0.4387040178014035
0.21118095180086882
0.7374701760378951
0.3638754663124015
0.28073747182673603
0.460790085737106
0.3082507909819154
0.2522191886578073
0.5514395828627973
0.22992274889800843
0.22145456267795527
0.4675124173863484
0.010088768996915683
0.17095977476472385
0.40567048148200896
0.05761187403151937
0.24977133764711887
-0.10198626796600539
0.07961564601788408
0.0625838112732823
0.4200021148641219
0.07335095304095479
0.16365347230392446
-0.3287510514196373
0.22176461754392512
-0.005054629952432985
0.1383584878177515
0.19877395647235707
0.24144253025920132
0.36446270502712763
0.15066031909852332
0.24279462736083018
-0.07389668038744004
0.11544077288905576
0.0919119290685028
0.17356183180372817
0.2873986417346332
0.24379633252791022
-0.029767574082037992
0.40534040608499616
0.16191236346174334
-0.03635462781488978
0.40421362574561176
0.17844557131787359
-0.055539409836994395
0.07730936605756858
0.07914115505690593
-0.05174610298428407
0.37690361152639845
0.21792703114628723
-0.08395618278049714
0.3327200578574027
0.24435252165190816
-0.03834884189667497
0.37002169546646707
0.1264324762436182
-0.03834884189667497
0.3699327316256212
0.15543907762257123
-0.008973594832886692
-0.023241048211960838
0.07714709481600583
0.020509840649574326
-0.06660631745402797
0.07795461288576809
-0.008973594832886692
-0.023241048211960838
0.09085369890450912
0.020509840649574326
-0.06660631745402797
0.11568418011472685
0.0
0.0
0.0
0.0
0.0
0.0
-0.3131768642890343
-0.018976165145717733
-0.033527152353919856
-0.391501973322904
0.06480988402158454
-0.03342046582122517
-0.37278447017074146
-0.0545144388688856
-0.14824087988291074
-0.08590436218858107
-0.1304532268194882
0.04103823685693862
-0.061841935904339285
0.04752310503460366
0.07881156288239516
-0.186030593175098
-0.13395271741439307
-0.05928290914878091
-0.32926308523697434
-0.020170789184066562
-0.04445297815236378
-0.17668999311776884
-0.1340135229846492
-0.09465248731338534
-0.30353710293979513
0.018793199087179108
-0.03819820973939138
-0.12121698791669978
-0.13641251386378225
-0.016667586259207022
-0.06902624337303181
-0.08986030218782848
-0.023001712640967314
-0.23959486201893584
0.055301613542502875
-0.31416008249706895
-0.010372095855039393
-0.05226423994674911
-0.046521838471907655
-0.16356623207008847
-0.3691589488854065
-0.4178650340020485
-0.10047428666756442
-0.4457459601118107
-0.38530786293607655
0.002237068779591029
-0.03268483406412809
0.0032471503628085686
-0.03328838203491521
-0.3758608163069841
-0.3793393639464449
-0.017057331495991992
-0.06227802928520431
0.0304635129088808
-0.0186382383390462
-0.04632234003882056
0.03876228597191368
-0.04104133116612505
-0.2971029447198205
-0.23934687011537104
-0.030079532747536157
0.03778760495098493
-0.01401810293951165
-0.05763000547579373
-0.1992720744227847
-0.3274551076538012
-0.022450202209008216
0.06611642398603582
-0.03834029809889394
-0.036133412402968426
-0.11859670182931777
-0.2833368322017927
-0.07277199899194417
-0.1623375150058085
-0.18114760348566358
-0.031188552946563954
0.0
-0.015959325658346516
-0.05062095387671947
-0.11180454155454483
-0.16943956048653316
0.0018870933189545627
0.0
-0.015959325658346516
-0.0031635662300546485
0.0
0.0
-0.014684968698537009
-0.08511155028377049
-0.016016136878715035
0.005498856996922648
0.0
0.0
-0.02834860785220875
-0.04769191122780847
0.017405496183514654
-0.35831743936490057
-0.189502011710688
-0.045227011696320554
-0.04042947542738211
-0.08460137456485604
-0.011497503161788871
-0.33671864089635034
-0.18952309739431183
-0.026909434123104353
-0.09069644816950473
-0.10980712381565069
-0.14422380830807136
-0.022653169492162863
-0.08032320149669318
-0.04280305752956227
-0.11802039388413163
-0.11911161311841295
-0.34436311296939187
-0.0804169508810799
-0.13698668876197734
-0.3208196689721203
-0.07334666610118999
-0.1319463881258982
-0.2705583848339743
-0.3325100775186673
-0.18746480012141092
-0.06771018910799453
0.03506820879520576
-0.059566449893082574
-0.06281722595057534
0.03524984355543942
-0.06674740959297949
-0.011175561756313877
-0.13348428522429817
-0.138149252761399
-0.3460765571415115
-0.19326054574559548
-0.11303795107192782
-0.2672053748454446
-0.13124068129601563
-0.0777665952988815
-0.13852081849570336
-0.3165793326206475
-0.1731633346071076
0.010514973314601939
-0.19436988280529513
-0.10720829462475304
0.03397585222448658
0.10585182805547565
-0.07119736187521841
-0.08516884693042014
-0.019336900228982847
-0.07595423140384291
-0.015834476887351116
-0.20470832462139532
-0.015353428987632641
-0.20810839432211883
-0.1699500477222664
-0.17189106870490659
-0.12253881391559582
-0.19489310160459783
-0.16250994854327103
-0.15571840422618358
-0.28822152142551455
-0.05721628165182245
-0.11994072451014293
-0.0815706772036574
-0.0501974099874133
-0.050836293636375596
0.12006843593535092
0.005759255112651488
-0.06756591317525981
-0.005675867360574287
-0.02297386219205471
-0.016088805707627028
-0.20417650785681857
-0.06054597150406417
-0.07351099778950823
-0.19608373446851596
-0.016141277126946303
-0.1104509919327383
-0.15896731548158094
-0.010282839110059122
-0.09834555232702832
-0.025084793276355766
-0.010593433679975214
0.10009342442734465
0.23595388342039397
0.08420116114520149
-0.0068999791678133835
-0.0059012357661127265
0.0015760584017129277
-0.04374276210748107
-0.12358730681109623
0.1085271388850394
-0.022113165428888925
-0.09336744238086324
0.13153928992838873
-0.0068999791678133835
-0.04525791632039961
0.18798499382668696
0.054058934231641466
-0.05429440089197741
-0.02123134107205854
-0.055390863342891165
0.20289761140948842
0.10814808807157618
-0.04227251060081652
-0.004097649973179252
0.0
0.0
-0.09195626368900704
0.13614842888147483
0.09398490876081052
-0.06480323859514012
0.1423757162642691
-0.04227251060081652
-0.23744338251211228
0.08993001872989898
-0.031063333635311035
-0.013934407699123135
-0.02667481776098704
-0.03487211882437052
-0.015403973755752816
-0.014773331170295558
-0.023598796402960642
0.0925623006397633
-0.1736305523774436
-0.1703890809556476
-0.03961014449461038
-0.1408923723989155
-0.13613589344773233
0.03342495294160759
-0.04105311704468942
-0.1124018544114335
0.04738600897358539
-0.026500218276597688
-0.057422192081881214
-0.0022181680601701006
0.0
0.0
-0.25088216447589784
0.01786951844360818
-0.029609650958480952
-0.2565569010028982
-0.014773331170295558
-0.023598796402960642
-0.20789798739615128
-0.049460356069655875
-0.03487211882437052
-0.011716239638953034
-0.014982754306355374
-0.019089439839007162
-0.004888755491451776
-0.014982754306355374
-0.019089439839007162
0.12575427337348913
0.10695108048332647
0.021629596678592145
0.16177171539724816
0.13614842888147483
0.09398490876081052
0.0009663326973482524
0.01786951844360818
-0.029609650958480952
0.003588646374478834
-0.014982754306355374
-0.03487211882437052
0.003588646374478834
-0.014982754306355374
-0.03487211882437052
-0.0026013383201245696
-0.014982754306355374
-0.019089439839007162
-0.005096577067107121
-0.014982754306355374
-0.019089439839007162
0.014033476018606165
-0.014982754306355374
-0.019089439839007162
0.012767300716014951
-0.014982754306355374
-0.019089439839007162
0.012767300716014951
-0.014982754306355374
-0.019089439839007162
0.014693724213450174
-0.014982754306355374
-0.019089439839007162
0.0061476381441690365
-0.014982754306355374
-0.007726861538258945
0.014033476018606165
-0.014982754306355374
-0.007726861538258945
0.21869824701221854
0.07041148427589891
-0.31745367884628745
0.19902579229436912
0.04931554736001197
-0.27836636803351705
0.11187100799925216
0.157809905619475
-0.21862336763672077
-0.0938516386202196
0.049992012972930586
-0.15391657673462944
-0.07739663827792374
0.03991457087735418
-0.04750925869065274
-0.0201731230440438
0.19857842750666221
-0.04603449019570315
-0.18314898162013493
0.1111613598019575
0.02432752970758013
-0.19396357969702815
-0.022785538308668835
0.0
0.006619662571845916
0.0
0.0
0.00788583787443713
0.0
0.0
0.00682748414750126
0.0
0.0
0.00682748414750126
0.0
0.0
0.01734978206831457
-0.02213926431024735
-0.12633457652590294
-0.16630889009122155
-0.018200145405798816
-0.07570359254512804
-0.3007449296600734
-0.0913125866680525
-0.07054955729576351
-0.31615217040386695
-0.021900532239597766
-0.042885078757478504
-0.3293213258012571
0.04733812878318726
0.0
-0.26770085000462857
0.03422762819269292
0.0
-0.2411529272471454
0.0
0.0
0.0022874171713272067
0.0
0.0
0.0006602481948440087
0.0
0.0
-0.14255781664617173
-0.094989659209582
0.07170332480464402
-0.19433578690098335
-0.07083413052614881
0.007691772932249173
-0.22572322369013936
0.16066815709657184
-0.03376761667675765
-0.22502042262772332
0.14080669255751158
-0.1017798290344268
-0.15032608202868047
0.11696706511215935
-0.10762753048691037
-0.18890024480642473
0.09460183091996721
-0.1198939196413983
-0.18403810043489108
-0.054883720256374224
0.005697517383188782
-0.2458866494698299
-0.011071891035411775
0.0
-0.2434403444184726
0.0
0.0
-0.249630329113076
0.0
0.0
-0.249630329113076
0.0
0.0
-0.1386979020212423
0.09389272585171218
0.07159391452915957
-0.13151927671635397
-0.10991919454618304
-0.02241181758316002
-0.14811075826500233
0.045378447229249365
0.25663758917034646
-0.2870094171627509
0.058019973769428614
0.2662737275086752
-0.15325180949827213
0.06367064575706508
0.19761731163820725
-0.17026587653924574
-0.11566933343228022
0.06307493236598871
0.10151957084807374
0.045378447229249365
0.17756906100586647
-0.03737908804967497
0.060628969655323446
0.18667628159317426
0.17251553409740678
-0.22085040320928825
0.07127628437716493
0.08985897354912596
-0.18140630699157143
0.06057005876017196
-0.08265656054828081
0.039444096217716836
-0.010706225616992943
-0.03874659982289173
-0.005750138886097176
0.08548674994914876
-0.014553907477029853
-0.030222080094647146
0.12602339710904764
0.0
-0.002608995885894814
0.07959744591550086
0.008212747597622326
-0.03237018958850395
-0.11177695417206565
0.12129870044982663
0.1020233424925792
-0.06993352819329754
0.18669560920646142
0.5937363121994275
0.5758147300316894
0.06539690875663479
0.4917129697068482
0.6457482582249873
0.18890657803343722
0.6279443205681894
0.7117712632610592
0.19674689220419786
0.4297806948094965
0.32567667646133114
0.19674689220419786
0.5529621815932022
0.49782085683264027
0.20443661491274268
0.6295226652279577
0.6016617339453302
0.140831500009593
-0.012865597546280961
-0.12298993769264736
0.23375224804835104
0.5765611964838797
0.40713551332303977
0.24702973396588343
0.46814619911306465
0.31397494558414113
0.24702973396588343
0.4697245437728328
0.20550140190616709
0.09292074803875804
0.5894267940301605
0.5301254510156872
0.3265901185105505
0.296701353227889
0.29289874595230575
0.3719958197236042
0.23602150895134028
0.4382519266867003
0.0
0.0
0.07906852816447996
0.015530036879305473
-0.01615321177257232
-0.04056881838940157
0.015530036879305473
0.0015783446597683337
-0.11010952931572941
0.1470837359279207
0.4555440103035146
0.14185759412486548
0.1470837359279207
0.6388605465937129
0.14185759412486548
-0.03546890130772532
0.049728310037638265
-0.07761391108394154
-0.06850341649738576
0.6801152802870783
0.12279161674970218
-0.03303451518966043
0.6303869702494401
0.2004055278336437
0.05634587162325408
-0.0009718533658801473
0.19799382657280318
0.2403447557837569
0.11915831045447298
0.17885871898591915
0.2474585121911682
0.17195786884557748
0.15188440345940757
0.0
0.0
0.0
0.0
0.0
0.0
-0.047601554965607355
-0.07149356788820903
0.06590695033403461
0.0
0.0
-0.0022417673307925136
0.0
0.0
-0.026039003921480043
-0.03951612920065273
0.5754524117189878
0.20742965358978124
-0.03951612920065273
0.5754524117189878
0.20742965358978124
-0.0040472278929274096
0.5245860551542858
0.1919155110813226
-0.0040472278929274096
0.5245860551542858
0.1919155110813226
-0.02197852890224608
-0.028436794558597753
0.056014667684543974
0.0
0.0015783446597683337
-0.10847354367797402
0.0
0.12909108786388618
0.09935245565234367
0.0
0.22678216921905803
0.21738504503459943
0.0
0.19341004230962444
0.1815469313328452
0.0
0.19341004230962444
0.1815469313328452
0.0
0.09180749632870136
0.005367727050545276
0.0
0.09180749632870136
0.005367727050545276
0.0
0.0976910813551718
0.1180325893822558
0.0
0.12318148678370563
0.17214418037130957
0.0
0.0
0.0232143532020675
0.05634587162325408
0.009601638202657732
0.11283917499051692
0.0
-8.896384084583709e-05
0.02900660137895302
0.0
0.0
0.03772956722895876
0.0
0.0
0.0
0.0
0.0
0.0
0.0
0.0
0.018730760957819878
0.0
0.0
0.0
0.0
0.0
0.01370660408850327
0.0
0.18331653629019826
0.0
0.0
0.0
0.0
0.0
0.0
0.0
0.0
0.0
0.0
0.0
0.0
0.0
0.0
0.0
0.0
0.0
0.0
0.0
0.0
0.0
0.0
0.0
0.0
0.0
0.0
0.0
0.0
0.0
0.0
0.0
0.0
0.0
0.0
0.0
0.0
0.0
0.0
0.0
0.0
0.0
0.0
0.0
0.0
0.0
0.0
0.0
0.0
0.0
0.0
0.0
0.0
0.0
0.0
0.0
0.0
0.0
0.0
0.0
0.0
0.0
0.0
0.0
0.0
0.0
0.0
0.0
0.0
0.0
0.0
0.0
0.0
0.0
0.0
0.0
0.0
0.0
0.0
0.0
0.0
0.0
0.0
0.0
0.0
0.0
0.0
0.0
0.0
0.0
0.0
0.0
0.0
0.0
0.0
0.0
0.0
0.0
0.0
0.0
0.0
0.0
0.0
0.0
0.0
0.0
0.0
0.0
0.0
0.0
0.0
0.0
0.0
0.0
0.0
0.0
0.0
0.0
0.0
0.0
0.0
0.0
0.0
0.0
0.0
0.0
0.0
0.0
0.0
0.0
0.0
0.0
0.0
0.0
0.0
0.0
0.0
0.0
0.0
0.0
0.0
0.0
0.0
0.0
0.0
0.0
0.0
0.0
0.0
0.0
0.0
0.0
0.0
0.0
0.0
0.0
0.0
0.0
0.0
0.0
0.0
0.0
0.0
0.0
0.0
0.0
0.0
0.0
0.0
0.0
0.0
0.0
0.0
0.0
0.0
0.0
0.0
0.0
0.0
0.0
0.0
0.0
0.0
0.0
0.0
0.0
0.0
0.0
0.0
0.0
0.0
0.0
0.0
0.0
0.0
0.0
0.0
0.0
0.0
0.0
0.0
0.0
0.0
0.0
0.0
0.0
0.0
0.0
0.0
0.0
0.0
0.0
0.0
0.0
0.0
0.0
0.0
0.0
0.0
0.0
0.0
0.0
0.0
0.0
0.0
0.0
0.0
0.0
0.0
0.0
0.0
0.0
0.0
0.0
0.0
0.0
0.0
0.0
0.0
0.0
0.0
0.0
0.0
0.0
0.0
0.0
0.0
0.0
0.0
0.0
0.0
0.0
0.0
0.0
0.0
0.0
0.0
0.0
0.0
0.0
0.0
0.0
0.0
0.0
0.0
0.0
0.0
0.0
0.0
0.0
0.0
0.0
0.0
0.0
0.0
0.0
0.0
0.0
0.0
0.0
0.0
0.0
0.0
0.0
0.0
0.0
0.0
0.0
0.0
0.0
0.0
0.0
0.0
0.0
0.0
0.0
0.0
0.0
0.0
0.0
0.0
0.0
0.0
0.0
0.0
0.0
0.0
0.0
0.0
0.0
0.0
0.0
0.0
0.0
0.0
0.0
0.0
0.0
0.0
0.0
0.0
0.0
0.0
0.0
0.0
0.0
0.0
0.0
0.0
0.0
0.0
0.0
0.0
0.0
0.0
0.0
0.0
0.0
0.0
0.0
0.0
0.0
0.0
0.0
0.0
0.0
0.0
0.0
0.0
0.0
0.0
0.0
0.0
0.0
0.0
0.0
0.0
0.0
0.0
0.0
0.0
0.0
0.0
0.0
0.0
0.0
0.0
0.0
0.0
0.0
0.0
0.0
0.0
0.0
0.0
0.0
0.0
0.0
0.0
0.0
0.0
0.0
0.0
0.0
0.0
0.0
0.0
0.0
0.0
0.0
0.0
0.0
0.0
0.0
0.0
0.0
0.0
0.0
0.0
0.0
0.0
0.0
0.0
0.0
0.0
0.0
0.0
0.0
0.0
0.0
0.0
0.0
0.0
0.0
0.0
0.0
0.0
0.0
0.0
0.0
0.0
0.0
0.0
0.0
0.0
0.0
0.0
0.0
0.0
0.0
0.0
0.0
0.0
0.0
0.0
0.0
0.0
0.0
0.0
0.0
0.0
0.0
0.0
0.0
0.0
0.0
0.0
0.0
0.0
0.0
0.0
0.0
0.0
0.0
0.0
0.0
0.0
0.0
0.0
0.0
0.0
0.0
0.0
0.0
0.0
0.0
0.0
0.0
0.0
0.0
0.0
0.0
0.0
0.0
0.0
0.0
0.0
0.0
0.0
0.0
0.0
0.0
0.0
0.0
0.0
0.0
0.0
0.0
0.0
0.0
0.0
0.0
0.0
0.0
0.0
0.0
0.0
0.0
0.0
0.0
0.0
0.0
0.0
0.0
0.0
0.0
0.0
0.0
0.0
0.0
0.0
0.0
0.0
0.0
0.0
0.0
0.0
0.0
0.0
0.0
0.0
0.0
0.0
0.0
0.0
0.0
0.0
0.0
0.0
0.0
0.0
0.0
0.0
0.0
0.0
0.0
0.0
0.0
0.0
0.0
0.0
0.0
0.0
0.0
0.0
0.0
0.0
0.0
0.0
0.0
0.0
0.0
0.0
0.0
0.0
0.0
0.0
0.0
0.0
0.0
0.0
0.0
0.0
0.0
0.0
0.0
0.0
0.0
0.0
0.0
0.0
0.0
0.0
0.0
0.0
0.0
0.0
0.0
0.0
0.0
0.0
0.0
0.0
0.0
0.0
0.0
0.0
0.0
0.0
0.0
0.0
0.0
0.0
0.0
0.0
0.0
0.0
0.0
0.0
0.0
0.0
0.0
0.0
0.0
0.0
0.0
0.0
0.0
0.0
0.0
0.0
0.0
0.0
0.0
0.0
0.0
0.0
0.0
0.0
0.0
0.0
0.0
0.0
0.0
0.0
0.0
0.0
0.0
0.0
0.0
0.0
0.0
0.0
0.0
0.0
0.0
0.0
0.0
0.0
0.0
0.0
0.0
0.0
0.0
0.0
0.0
0.0
0.0
0.0
0.0
0.0
0.0
0.0
0.0
0.0
0.0
0.0
0.0
0.0
0.0
0.0
0.0
0.0
0.0
0.0
0.0
0.0
0.0
0.0
0.0
0.0
0.0
0.0
0.0
0.0
0.0
0.0
0.0
0.0
0.0
0.0
0.0
0.0
0.0
0.0
0.0
0.0
0.0
0.0
0.0
0.0
0.0
0.0
0.0
0.0
0.0
0.0
0.0
0.0
0.0
0.0
0.0
0.0
0.0
0.0
0.0
0.0
0.0
0.0
0.0
0.0
0.0
0.0
0.0
0.0
0.0
0.0
0.0
0.0
0.0
0.0
0.0
0.0
0.0
0.0
0.0
0.0
0.0
0.0
0.0
0.0
0.0
0.0
0.0
0.0
0.0
0.0
0.0
0.0
0.0
0.0
0.0
0.0
0.0
0.0
0.0
0.0
0.0
0.0
0.0
0.0
0.0
0.0
0.0
0.0
0.0
0.0
0.0
0.0
0.0
0.0
0.0
0.0
0.0
0.0
0.0
0.0
0.0
0.0
0.0
0.0
0.0
0.0
0.0
0.0
0.0
0.0
0.0
0.0
0.0
0.0
0.0
0.0
0.0
0.0
0.0
0.0
0.0
0.0
0.0
0.0
0.0
0.0
0.0
0.0
0.0
0.0
0.0
0.0
0.0
0.0
0.0
0.0
0.0
0.0
0.0
0.0
0.0
0.0
0.0
0.0
0.0
0.0
0.0
0.0
0.0
0.0
0.0
0.0
0.0
0.0
0.0
0.0
0.0
0.0
0.0
0.0
0.0
0.0
0.0
0.0
0.0
0.0
0.0
0.0
0.0
0.0
0.0
0.0
0.0
0.0
0.0
0.0
0.0
0.0
0.0
0.0
0.0
0.0
0.0
0.0
0.0
0.0
0.0
0.0
0.0
0.0
0.0
0.0
0.0
0.0
0.0
0.0
0.0
0.0
0.0
0.0
0.0
0.0
0.0
0.0
0.0
0.0
0.0
0.0
0.0
0.0
0.0
0.0
0.0
0.0
0.0
0.0
0.0
0.0
0.0
0.0
0.0
0.0
0.0
0.0
0.0
0.0
0.0
0.0
0.0
0.0
0.0
0.0
0.0
0.0
0.0
0.0
0.0
0.0
0.0
0.0
0.0
0.0
0.0
0.0
0.0
0.0
0.0
0.0
0.0
0.0
0.0
0.0
0.0
0.0
0.0
0.0
0.0
0.0
0.0
0.0
0.0
0.0
0.0
0.0
0.0
0.0
0.0
0.0
0.0
0.0
0.0
0.0
0.0
0.0
0.0
0.0
0.0
0.0
0.0
0.0
0.0
0.0
0.0
0.0
0.0
0.0
0.0
0.0
0.0
0.0
0.0
0.0
0.0
0.0
0.0
0.0
0.0
0.0
0.0
0.0
0.0
0.0
0.0
0.0
0.0
0.0
0.0
0.0
0.0
0.0
0.0
0.0
0.0
0.0
0.0
0.0
0.0
0.0
0.0
0.0
0.0
0.0
0.0
0.0
0.0
0.0
0.0
0.0
0.0
0.0
0.0
0.0
0.0
0.0
0.0
0.0
0.0
0.0
0.0
0.0
0.0
0.0
0.0
0.0
0.0
0.0
0.0
0.0
0.0
0.0
0.0
0.0
0.0
0.0
0.0
0.0
0.0
0.0
0.0
0.0
0.0
0.0
0.0
0.0
0.0
0.0
0.0
0.0
0.0
0.0
0.0
0.0
0.0
0.0
0.0
0.0
0.0
0.0
0.0
0.0
0.0
0.0
0.0
0.0
0.0
0.0
0.0
0.0
0.0
0.0
0.0
0.0
0.0
0.0
0.0
0.0
0.0
0.0
0.0
0.0
0.0
0.0
0.0
0.0
0.0
0.0
0.0
0.0
0.0
0.0
0.0
0.0
0.0
0.0
0.0
0.0
0.0
0.0
0.0
0.0
0.0
0.0
0.0
0.0
0.0
0.0
0.0
0.0
0.0
0.0
0.0
0.0
0.0
0.0
0.0
0.0
0.0
0.0
0.0
0.0
0.0
0.0
0.0
0.0
0.0
0.0
0.0
0.0
0.0
0.0
0.0
0.0
0.0
0.0
0.0
0.0
0.0
0.0
0.0
0.0
0.0
0.0
0.0
0.0
0.0
0.0
0.0
0.0
0.0
0.0
0.0
0.0
0.0
0.0
0.0
0.0
0.0
0.0
0.0
0.0
0.0
0.0
0.0
0.0
0.0
0.0
0.0
0.0
0.0
0.0
0.0
0.0
0.0
0.0
0.0
0.0
0.0
0.0
0.0
0.0
0.0
0.0
0.0
0.0
0.0
0.0
0.0
0.0
0.0
0.0
0.0
0.0
0.0
0.0
0.0
0.0
0.0
0.0
0.0
0.0
0.0
0.0
0.0
0.0
0.0
0.0
0.0
0.0
0.0
0.0
0.0
0.0
0.0
0.0
0.0
0.0
0.0
0.0
0.0
0.0
0.0
0.0
0.0
0.0
0.0
0.0
0.0
0.0
0.0
0.0
0.0
0.0
0.0
0.0
0.0
0.0
0.0
0.0
0.0
0.0
0.0
0.0
0.0
0.0
0.0
0.0
0.0
0.0
0.0
0.0
0.0
0.0
0.0
0.0
0.0
0.0
0.0
0.0
0.0
0.0
0.0
0.0
0.0
0.0
0.0
0.0
0.0
0.0
0.0
0.0
0.0
0.0
0.0
0.0
0.0
0.0
0.0
0.0
0.0
0.0
0.0
0.0
0.0
0.0
0.0
0.0
0.0
0.0
0.0
0.0
0.0
0.0
0.0
0.0
0.0
0.0
0.0
0.0
0.0
0.0
0.0
0.0
0.0
0.0
0.0
0.0
0.0
0.0
0.0
0.0
0.0
0.0
0.0
0.0
0.0
0.0
0.0
0.0
0.0
0.0
0.0
0.0
0.0
0.0
0.0
0.0
0.0
0.0
0.0
0.0
0.0
0.0
0.0
0.0
0.0
0.0
0.0
0.0
0.0
0.0
0.0
0.0
0.0
0.0
0.0
0.0
0.0
0.0
0.0
0.0
0.0
0.0
0.0
0.0
0.0
0.0
0.0
0.0
0.0
0.0
0.0
0.0
0.0
0.0
0.0
0.0
0.0
0.0
0.0
0.0
0.0
0.0
0.0
0.0
0.0
0.0
0.0
0.0
0.0
0.0
0.0
0.0
0.0
0.0
0.0
0.0
0.0
0.0
0.0
0.0
0.0
0.0
0.0
0.0
0.0
0.0
0.0
0.0
0.0
0.0
0.0
0.0
0.0
0.0
0.0
0.0
0.0
0.0
0.0
0.0
0.0
0.0
0.0
0.0
0.0
0.0
0.0
0.0
0.0
0.0
0.0
0.0
0.0
0.0
0.0
0.0
0.0
0.0
0.0
0.0
0.0
0.0
0.0
0.0
0.0
0.0
0.0
0.0
0.0
0.0
0.0
0.0
0.0
0.0
0.0
0.0
0.0
0.0
0.0
0.0
0.0
0.0
0.0
0.0
0.0
0.0
0.0
0.0
0.0
0.0
0.0
0.0
0.0
0.0
0.0
0.0
0.0
0.0
0.0
0.0
0.0
0.0
0.0
0.0
0.0
0.0
0.0
0.0
0.0
0.0
0.0
0.0
0.0
0.0
0.0
0.0
0.0
0.0
0.0
0.0
0.0
0.0
0.0
0.0
0.0
0.0
0.0
0.0
0.0
0.0
0.0
0.0
0.0
0.0
0.0
0.0
0.0
0.0
0.0
0.0
0.0
0.0
0.0
0.0
0.0
0.0
0.0
0.0
0.0
0.0
0.0
0.0
0.0
0.0
0.0
0.0
0.0
0.0
0.0
0.0
0.0
0.0
0.0
0.0
0.0
0.0
0.0
0.0
0.0
0.0
0.0
0.0
0.0
0.0
0.0
0.0
0.0
0.0
0.0
0.0
0.0
0.0
0.0
0.0
0.0
0.0
0.0
0.0
0.0
0.0
0.0
0.0
0.0
0.0
0.0
0.0
0.0
0.0
0.0
0.0
0.0
0.0
0.0
0.0
0.0
0.0
0.0
0.0
0.0
0.0
0.0
0.0
0.0
0.0
0.0
0.0
0.0
0.0
0.0
0.0
0.0
0.0
0.0
0.0
0.0
0.0
0.0
0.0
0.0
0.0
0.0
0.0
0.0
0.0
0.0
0.0
0.0
0.0
0.0
0.0
0.0
0.0
0.0
0.0
0.0
0.0
0.0
0.0
0.0
0.0
0.0
0.0
0.0
0.0
0.0
0.0
0.0
0.0
0.0
0.0
0.0
0.0
0.0
0.0
0.0
0.0
0.0
0.0
0.0
0.0
0.0
0.0
0.0
0.0
0.0
0.0
0.0
0.0
0.0
0.0
0.0
0.0
0.0
0.0
0.0
0.0
0.0
0.0
0.0
0.0
0.0
0.0
0.0
0.0
0.0
0.0
0.0
0.0
0.0
0.0
0.0
0.0
0.0
0.0
0.0
0.0
0.0
0.0
0.0
0.0
0.0
0.0
0.0
0.0
0.0
0.0
0.0
0.0
0.0
0.0
0.0
0.0
0.0
0.0
0.0
0.0
0.0
0.0
0.0
0.0
0.0
0.0
0.0
0.0
0.0
0.0
0.0
0.0
0.0
0.0
0.0
0.0
0.0
0.0
0.0
0.0
0.0
0.0
0.0
0.0
0.0
0.0
0.0
0.0
0.0
0.0
0.0
0.0
0.0
0.0
0.0
0.0
0.0
0.0
0.0
0.0
0.0
0.0
0.0
0.0
0.0
0.0
0.0
0.0
0.0
0.0
0.0
0.0
0.0
0.0
0.0
0.0
0.0
0.0
0.0
0.0
0.0
0.0
0.0
0.0
0.0
0.0
0.0
0.0
0.0
0.0
0.0
0.0
0.0
0.0
0.0
0.0
0.0
0.0
0.0
0.0
0.0
0.0
0.0
0.0
0.0
0.0
0.0
0.0
0.0
0.0
0.0
0.0
0.0
0.0
0.0
0.0
0.0
0.0
0.0
0.0
0.0
0.0
0.0
0.0
0.0
0.0
0.0
0.0
0.0
0.0
0.0
0.0
0.0
0.0
0.0
0.0
0.0
0.0
0.0
0.0
0.0
0.0
0.0
0.0
0.0
0.0
0.0
0.0
0.0
0.0
0.0
0.0
0.0
0.0
0.0
0.0
0.0
0.0
0.0
0.0
0.0
0.0
0.0
0.0
0.0
0.0
0.0
0.0
0.0
0.0
0.0
0.0
0.0
0.0
0.0
0.0
0.0
0.0
0.0
0.0
0.0
0.0
0.0
0.0
0.0
0.0
0.0
0.0
0.0
0.0
0.0
0.0
0.0
0.0
0.0
0.0
0.0
0.0
0.0
0.0
0.0
0.0
0.0
0.0
0.0
0.0
0.0
0.0
0.0
0.0
0.0
0.0
0.0
0.0
0.0
0.0
0.0
0.0
0.0
0.0
0.0
0.0
0.0
0.0
0.0
0.0
0.0
0.0
0.0
0.0
0.0
0.0
0.0
0.0
0.0
0.0
0.0
0.0
0.0
0.0
0.0
0.0
0.0
0.0
0.0
0.0
0.0
0.0
0.0
0.0
0.0
0.0
0.0
0.0
0.0
0.0
0.0
0.0
0.0
0.0
0.0
0.0
0.0
0.0
0.0
0.0
0.0
0.0
0.0
0.0
0.0
0.0
0.0
0.0
0.0
0.0
0.0
0.0
0.0
0.0
0.0
0.0
0.0
0.0
0.0
0.0
0.0
0.0
0.0
0.0
0.0
0.0
0.0
0.0
0.0
0.0
0.0
0.0
0.0
0.0
0.0
0.0
0.0
0.0
0.0
0.0
0.0
0.0
0.0
0.0
0.0
0.0
0.0
0.0
0.0
0.0
0.0
0.0
0.0
0.0
0.0
0.0
0.0
0.0
0.0
0.0
0.0
0.0
0.0
0.0
0.0
0.0
0.0
0.0
0.0
0.0
0.0
0.0
0.0
0.0
0.0
0.0
0.0
0.0
0.0
0.0
0.0
0.0
0.0
0.0
0.0
0.0
0.0
0.0
0.0
0.0
0.0
0.0
0.0
0.0
0.0
0.0
0.0
0.0
0.0
0.0
0.0
0.0
0.0
0.0
0.0
0.0
0.0
0.0
0.0
0.0
0.0
0.0
0.0
0.0
0.0
0.0
0.0
0.0
0.0
0.0
0.0
0.0
0.0
0.0
0.0
0.0
0.0
0.0
0.0
0.0
0.0
0.0
0.0
0.0
0.0
0.0
0.0
0.0
0.0
0.0
0.0
0.0
0.0
0.0
0.0
0.0
0.0
0.0
0.0
0.0
0.0
0.0
0.0
0.0
0.0
0.0
0.0
0.0
0.0
0.0
0.0
0.0
0.0
0.0
0.0
0.0
0.0
0.0
0.0
0.0
0.0
0.0
0.0
0.0
0.0
0.0
0.0
0.0
0.0
0.0
0.0
0.0
0.0
0.0
0.0
0.0
0.0
0.0
0.0
0.0
0.0
0.0
0.0
0.0
0.0
0.0
0.0
0.0
0.0
0.0
0.0
0.0
0.0
0.0
0.0
0.0
0.0
0.0
0.0
0.0
0.0
0.0
0.0
0.0
0.0
0.0
0.0
0.0
0.0
0.0
0.0
0.0
0.0
0.0
0.0
0.0
0.0
0.0
0.0
0.0
0.0
0.0
0.0
0.0
0.0
0.0
0.0
0.0
0.0
0.0
0.0
0.0
0.0
0.0
0.0
0.0
0.0
0.0
0.0
0.0
0.0
0.0
0.0
0.0
0.0
0.0
0.0
0.0
0.0
0.0
0.0
0.0
0.0
0.0
0.0
0.0
0.0
0.0
0.0
0.0
0.0
0.0
0.0
0.0
0.0
0.0
0.0
0.0
0.0
0.0
0.0
0.0
0.0
0.0
0.0
0.0
0.0
0.0
0.0
0.0
0.0
0.0
0.0
0.0
0.0
0.0
0.0
0.0
0.0
0.0
0.0
0.0
0.0
0.0
0.0
0.0
0.0
0.0
0.0
0.0
0.0
0.0
0.0
0.0
0.0
0.0
0.0
0.0
0.0
0.0
0.0
0.0
0.0
0.0
0.0
0.0
0.0
0.0
0.0
0.0
0.0
0.0
0.0
0.0
0.0
0.0
0.0
0.0
0.0
0.0
0.0
0.0
0.0
0.0
0.0
0.0
0.0
0.0
0.0
0.0
0.0
0.0
0.0
0.0
0.0
0.0
0.0
0.0
0.0
0.0
0.0
0.0
0.0
0.0
0.0
0.0
0.0
0.0
0.0
0.0
0.0
0.0
0.0
0.0
0.0
0.0
0.0
0.0
0.0
0.0
0.0
0.0
0.0
0.0
0.0
0.0
0.0
0.0
0.0
0.0
0.0
0.0
0.0
0.0
0.0
0.0
0.0
0.0
0.0
0.0
0.0
0.0
0.0
0.0
0.0
0.0
0.0
0.0
0.0
0.0
0.0
0.0
0.0
0.0
0.0
0.0
0.0
0.0
0.0
0.0
0.0
0.0
0.0
0.0
0.0
0.0
0.0
0.0
0.0
0.0
0.0
0.0
0.0
0.0
0.0
0.0
0.0
0.0
0.0
0.0
0.0
0.0
0.0
0.0
0.0
0.0
0.0
0.0
0.0
0.0
0.0
0.0
0.0
0.0
0.0
0.0
0.0
0.0
0.0
0.0
0.0
0.0
0.0
0.0
0.0
0.0
0.0
0.0
0.0
0.0
0.0
0.0
0.0
0.0
0.0
0.0
0.0
0.0
0.0
0.0
0.0
0.0
0.0
0.0
0.0
0.0
0.0
0.0
0.0
0.0
0.0
0.0
0.0
0.0
0.0
0.0
0.0
0.0
0.0
0.0
0.0
0.0
0.0
0.0
0.0
0.0
0.0
0.0
0.0
0.0
0.0
0.0
0.0
0.0
0.0
0.0
0.0
0.0
0.0
0.0
0.0
0.0
0.0
0.0
0.0
0.0
0.0
0.0
0.0
0.0
0.0
0.0
0.0
0.0
0.0
0.0
0.0
0.0
0.0
0.0
0.0
0.0
0.0
0.0
0.0
0.0
0.0
0.0
0.0
0.0
0.0
0.0
0.0
0.0
0.0
0.0
0.0
0.0
0.0
0.0
0.0
0.0
0.0
0.0
0.0
0.0
0.0
0.0
0.0
0.0
0.0
0.0
0.0
0.0
0.0
0.0
0.0
0.0
0.0
0.0
0.0
0.0
0.0
0.0
0.0
0.0
0.0
0.0
0.0
0.0
0.0
0.0
0.0
0.0
0.0
0.0
0.0
0.0
0.0
0.0
0.0
0.0
0.0
0.0
0.0
0.0
0.0
0.0
0.0
0.0
0.0
0.0
0.0
0.0
0.0
0.0
0.0
0.0
0.0
0.0
0.0
0.0
0.0
0.0
0.0
0.0
0.0
0.0
0.0
0.0
0.0
0.0
0.0
0.0
0.0
0.0
0.0
0.0
0.0
0.0
0.0
0.0
0.0
0.0
0.0
0.0
0.0
0.0
0.0
0.0
0.0
0.0
0.0
0.0
0.0
0.0
0.0
0.0
0.0
0.0
0.0
0.0
0.0
0.0
0.0
0.0
0.0
0.0
0.0
0.0
0.0
0.0
0.0
0.0
0.0
0.0
0.0
0.0
0.0
0.0
0.0
0.0
0.0
0.0
0.0
0.0
0.0
0.0
0.0
0.0
0.0
0.0
0.0
0.0
0.0
0.0
0.0
0.0
0.0
0.0
0.0
0.0
0.0
0.0
0.0
0.0
0.0
0.0
0.0
0.0
0.0
0.0
0.0
0.0
0.0
0.0
0.0
0.0
0.0
0.0
0.0
0.0
0.0
0.0
0.0
0.0
0.0
0.0
0.0
0.0
0.0
0.0
0.0
0.0
0.0
0.0
0.0
0.0
0.0
0.0
0.0
0.0
0.0
0.0
0.0
0.0
0.0
0.0
0.0
0.0
0.0
0.0
0.0
0.0
0.0
0.0
0.0
0.0
0.0
0.0
0.0
0.0
0.0
0.0
0.0
0.0
0.0
0.0
0.0
0.0
0.0
0.0
0.0
0.0
0.0
0.0
0.0
0.0
0.0
0.0
0.0
0.0
0.0
0.0
0.0
0.0
0.0
0.0
0.0
0.0
0.0
0.0
0.0
0.0
0.0
0.0
0.0
0.0
0.0
0.0
0.0
0.0
0.0
0.0
0.0
0.0
0.0
0.0
0.0
0.0
0.0
0.0
0.0
0.0
0.0
0.0
0.0
0.0
0.0
0.0
0.0
0.0
0.0
0.0
0.0
0.0
0.0
0.0
0.0
0.0
0.0
0.0
0.0
0.0
0.0
0.0
0.0
0.0
0.0
0.0
0.0
0.0
0.0
0.0
0.0
0.0
0.0
0.0
0.0
0.0
0.0
0.0
0.0
0.0
0.0
0.0
0.0
0.0
0.0
0.0
0.0
0.0
0.0
0.0
0.0
0.0
0.0
0.0
0.0
0.0
0.0
0.0
0.0
0.0
0.0
0.0
0.0
0.0
0.0
0.0
0.0
0.0
0.0
0.0
0.0
0.0
0.0
0.0
0.0
0.0
0.0
0.0
0.0
0.0
0.0
0.0
0.0
0.0
0.0
0.0
0.0
0.0
0.0
0.0
0.0
0.0
0.0
0.0
0.0
0.0
0.0
0.0
0.0
0.0
0.0
0.0
0.0
0.0
0.0
0.0
0.0
0.0
0.0
0.0
0.0
0.0
0.0
0.0
0.0
0.0
0.0
0.0
0.0
0.0
0.0
0.0
0.0
0.0
0.0
0.0
0.0
0.0
0.0
0.0
0.0
0.0
0.0
0.0
0.0
0.0
0.0
0.0
0.0
0.0
0.0
0.0
0.0
0.0
0.0
0.0
0.0
0.0
0.0
0.0
0.0
0.0
0.0
0.0
0.0
0.0
0.0
0.0
0.0
0.0
0.0
0.0
0.0
0.0
0.0
0.0
0.0
0.0
0.0
0.0
0.0
0.0
0.0
0.0
0.0
0.0
0.0
0.0
0.0
0.0
0.0
0.0
0.0
0.0
0.0
0.0
0.0
0.0
0.0
0.0
0.0
0.0
0.0
0.0
0.0
0.0
0.0
0.0
0.0
0.0
0.0
0.0
0.0
0.0
0.0
0.0
0.0
0.0
0.0
0.0
0.0
0.0
0.0
0.0
0.0
0.0
0.0
0.0
0.0
0.0
0.0
0.0
0.0
0.0
0.0
0.0
0.0
0.0
0.0
0.0
0.0
0.0
0.0
0.0
0.0
0.0
0.0
0.0
0.0
0.0
0.0
0.0
0.0
0.0
0.0
0.0
0.0
0.0
0.0
0.0
0.0
0.0
0.0
0.0
0.0
0.0
0.0
0.0
0.0
0.0
0.0
0.0
0.0
0.0
0.0
0.0
0.0
0.0
0.0
0.0
0.0
0.0
0.0
0.0
0.0
0.0
0.0
0.0
0.0
0.0
0.0
0.0
0.0
0.0
0.0
0.0
0.0
0.0
0.0
0.0
0.0
0.0
0.0
0.0
0.0
0.0
0.0
0.0
0.0
0.0
0.0
0.0
0.0
0.0
0.0
0.0
0.0
0.0
0.0
0.0
0.0
0.0
0.0
0.0
0.0
0.0
0.0
0.0
0.0
0.0
0.0
0.0
0.0
0.0
0.0
0.0
0.0
0.0
0.0
0.0
0.0
0.0
0.0
0.0
0.0
0.0
0.0
0.0
0.0
0.0
0.0
0.0
0.0
0.0
0.0
0.0
0.0
0.0
0.0
0.0
0.0
0.0
0.0
0.0
0.0
0.0
0.0
0.0
0.0
0.0
0.0
0.0
0.0
0.0
0.0
0.0
0.0
0.0
0.0
0.0
0.0
0.0
0.0
0.0
0.0
0.0
0.0
0.0
0.0
0.0
0.0
0.0
0.0
0.0
0.0
0.0
0.0
0.0
0.0
0.0
0.0
0.0
0.0
0.0
0.0
0.0
0.0
0.0
0.0
0.0
0.0
0.0
0.0
0.0
0.0
0.0
0.0
0.0
0.0
0.0
0.0
0.0
0.0
0.0
0.0
0.0
0.0
0.0
0.0
0.0
0.0
0.0
0.0
0.0
0.0
0.0
0.0
0.0
0.0
0.0
0.0
0.0
0.0
0.0
0.0
0.0
0.0
0.0
0.0
0.0
0.0
0.0
0.0
0.0
0.0
0.0
0.0
0.0
0.0
0.0
0.0
0.0
0.0
0.0
0.0
0.0
0.0
0.0
0.0
0.0
0.0
0.0
0.0
0.0
0.0
0.0
0.0
0.0
0.0
0.0
0.0
0.0
0.0
0.0
0.0
0.0
0.0
0.0
0.0
0.0
0.0
0.0
0.0
0.0
0.0
0.0
0.0
0.0
0.0
0.0
0.0
0.0
0.0
0.0
0.0
0.0
0.0
0.0
0.0
0.0
0.0
0.0
0.0
0.0
0.0
0.0
0.0
0.0
0.0
0.0
0.0
0.0
0.0
0.0
0.0
0.0
0.0
0.0
0.0
0.0
0.0
0.0
0.0
0.0
0.0
0.0
0.0
0.0
0.0
0.0
0.0
0.0
0.0
0.0
0.0
0.0
0.0
0.0
0.0
0.0
0.0
0.0
0.0
0.0
0.0
0.0
0.0
0.0
0.0
0.0
0.0
0.0
0.0
0.0
0.0
0.0
0.0
0.0
0.0
0.0
0.0
0.0
0.0
0.0
0.0
0.0
0.0
0.0
0.0
0.0
0.0
0.0
0.0
0.0
0.0
0.0
0.0
0.0
0.0
0.0
0.0
0.0
0.0
0.0
0.0
0.0
0.0
0.0
0.0
0.0
0.0
0.0
0.0
0.0
0.0
0.0
0.0
0.0
0.0
0.0
0.0
0.0
0.0
0.0
0.0
0.0
0.0
0.0
0.0
0.0
0.0
0.0
0.0
0.0
0.0
0.0
0.0
0.0
0.0
0.0
0.0
0.0
0.0
0.0
0.0
0.0
0.0
0.0
0.0
0.0
0.0
0.0
0.0
0.0
0.0
0.0
0.0
0.0
0.0
0.0
0.0
0.0
0.0
0.0
0.0
0.0
0.0
0.0
0.0
0.0
0.0
0.0
0.0
0.0
0.0
0.0
0.0
0.0
0.0
0.0
0.0
0.0
0.0
0.0
0.0
0.0
0.0
0.0
0.0
0.0
0.0
0.0
0.0
0.0
0.0
0.0
0.0
0.0
0.0
0.0
0.0
0.0
0.0
0.0
0.0
0.0
0.0
0.0
0.0
0.0
0.0
0.0
0.0
0.0
0.0
0.0
0.0
0.0
0.0
0.0
0.0
0.0
0.0
0.0
0.0
0.0
0.0
0.0
0.0
0.0
0.0
0.0
0.0
0.0
0.0
0.0
0.0
0.0
0.0
0.0
0.0
0.0
0.0
0.0
0.0
0.0
0.0
0.0
0.0
0.0
0.0
0.0
0.0
0.0
0.0
0.0
0.0
0.0
0.0
0.0
0.0
0.0
0.0
0.0
0.0
0.0
0.0
0.0
0.0
0.0
0.0
0.0
0.0
0.0
0.0
0.0
0.0
0.0
0.0
0.0
0.0
0.0
0.0
0.0
0.0
0.0
0.0
0.0
0.0
0.0
0.0
0.0
0.0
0.0
0.0
0.0
0.0
0.0
0.0
0.0
0.0
0.0
0.0
0.0
0.0
0.0
0.0
0.0
0.0
0.0
0.0
0.0
0.0
0.0
0.0
0.0
0.0
0.0
0.0
0.0
0.0
0.0
0.0
0.0
0.0
0.0
0.0
0.0
0.0
0.0
0.0
0.0
0.0
0.0
0.0
0.0
0.0
0.0
0.0
0.0
0.0
0.0
0.0
0.0
0.0
0.0
0.0
0.0
0.0
0.0
0.0
0.0
0.0
0.0
0.0
0.0
0.0
0.0
0.0
0.0
0.0
0.0
0.0
0.0
